<?xml version="1.0"?>
<opencv_storage>
<nopark_F_cascade type_id="opencv-haar-classifier">
  <size>
    20 20</size>
  <stages>
    <_>
      <!-- stage 0 -->
      <trees>
        <_>
          <!-- tree 0 -->
          <_>
            <!-- root node -->
            <feature>
              <rects>
                <_>
                  0 0 6 9 -1.</_>
                <_>
                  2 3 2 3 9.</_></rects>
              <tilted>0</tilted></feature>
            <threshold>0.0386856608092785</threshold>
            <left_val>1.</left_val>
            <right_val>-1.</right_val></_></_></trees>
      <stage_threshold>1.</stage_threshold>
      <parent>-1</parent>
      <next>-1</next></_>
    <_>
      <!-- stage 1 -->
      <trees>
        <_>
          <!-- tree 0 -->
          <_>
            <!-- root node -->
            <feature>
              <rects>
                <_>
                  0 0 1 4 -1.</_>
                <_>
                  0 1 1 2 2.</_></rects>
              <tilted>0</tilted></feature>
            <threshold>2.5027880910784006e-003</threshold>
            <left_val>1.</left_val>
            <right_val>-1.</right_val></_></_></trees>
      <stage_threshold>1.</stage_threshold>
      <parent>0</parent>
      <next>-1</next></_>
    <_>
      <!-- stage 2 -->
      <trees>
        <_>
          <!-- tree 0 -->
          <_>
            <!-- root node -->
            <feature>
              <rects>
                <_>
                  0 0 4 14 -1.</_>
                <_>
                  0 0 2 7 2.</_>
                <_>
                  2 7 2 7 2.</_></rects>
              <tilted>0</tilted></feature>
            <threshold>6.8408050574362278e-003</threshold>
            <left_val>-1.</left_val>
            <right_val>1.</right_val></_></_></trees>
      <stage_threshold>1.</stage_threshold>
      <parent>1</parent>
      <next>-1</next></_>
    <_>
      <!-- stage 3 -->
      <trees>
        <_>
          <!-- tree 0 -->
          <_>
            <!-- root node -->
            <feature>
              <rects>
                <_>
                  0 0 12 2 -1.</_>
                <_>
                  3 0 6 2 2.</_></rects>
              <tilted>0</tilted></feature>
            <threshold>-8.8470168411731720e-003</threshold>
            <left_val>-1.</left_val>
            <right_val>1.</right_val></_></_></trees>
      <stage_threshold>1.</stage_threshold>
      <parent>2</parent>
      <next>-1</next></_>
    <_>
      <!-- stage 4 -->
      <trees>
        <_>
          <!-- tree 0 -->
          <_>
            <!-- root node -->
            <feature>
              <rects>
                <_>
                  0 6 3 5 -1.</_>
                <_>
                  1 6 1 5 3.</_></rects>
              <tilted>0</tilted></feature>
            <threshold>4.1963250259868801e-004</threshold>
            <left_val>1.</left_val>
            <right_val>-1.</right_val></_></_></trees>
      <stage_threshold>1.</stage_threshold>
      <parent>3</parent>
      <next>-1</next></_>
    <_>
      <!-- stage 5 -->
      <trees>
        <_>
          <!-- tree 0 -->
          <_>
            <!-- root node -->
            <feature>
              <rects>
                <_>
                  0 3 12 3 -1.</_>
                <_>
                  4 4 4 1 9.</_></rects>
              <tilted>0</tilted></feature>
            <threshold>0.0344657488167286</threshold>
            <left_val>1.</left_val>
            <right_val>-1.</right_val></_></_></trees>
      <stage_threshold>1.</stage_threshold>
      <parent>4</parent>
      <next>-1</next></_>
    <_>
      <!-- stage 6 -->
      <trees>
        <_>
          <!-- tree 0 -->
          <_>
            <!-- root node -->
            <feature>
              <rects>
                <_>
                  0 0 14 18 -1.</_>
                <_>
                  0 0 7 9 2.</_>
                <_>
                  7 9 7 9 2.</_></rects>
              <tilted>0</tilted></feature>
            <threshold>0.0420764908194542</threshold>
            <left_val>1.</left_val>
            <right_val>-1.</right_val></_></_></trees>
      <stage_threshold>1.</stage_threshold>
      <parent>5</parent>
      <next>-1</next></_>
    <_>
      <!-- stage 7 -->
      <trees>
        <_>
          <!-- tree 0 -->
          <_>
            <!-- root node -->
            <feature>
              <rects>
                <_>
                  6 0 2 4 -1.</_>
                <_>
                  6 1 2 2 2.</_></rects>
              <tilted>0</tilted></feature>
            <threshold>2.7800889802165329e-004</threshold>
            <left_val>1.</left_val>
            <right_val>-1.</right_val></_></_></trees>
      <stage_threshold>1.</stage_threshold>
      <parent>6</parent>
      <next>-1</next></_>
    <_>
      <!-- stage 8 -->
      <trees>
        <_>
          <!-- tree 0 -->
          <_>
            <!-- root node -->
            <feature>
              <rects>
                <_>
                  0 0 9 12 -1.</_>
                <_>
                  0 3 9 6 2.</_></rects>
              <tilted>0</tilted></feature>
            <threshold>-0.0753990933299065</threshold>
            <left_val>-1.</left_val>
            <right_val>1.</right_val></_></_></trees>
      <stage_threshold>1.</stage_threshold>
      <parent>7</parent>
      <next>-1</next></_>
    <_>
      <!-- stage 9 -->
      <trees>
        <_>
          <!-- tree 0 -->
          <_>
            <!-- root node -->
            <feature>
              <rects>
                <_>
                  0 4 15 3 -1.</_>
                <_>
                  5 5 5 1 9.</_></rects>
              <tilted>0</tilted></feature>
            <threshold>-0.0596282109618187</threshold>
            <left_val>-1.</left_val>
            <right_val>1.</right_val></_></_></trees>
      <stage_threshold>1.</stage_threshold>
      <parent>8</parent>
      <next>-1</next></_>
    <_>
      <!-- stage 10 -->
      <trees>
        <_>
          <!-- tree 0 -->
          <_>
            <!-- root node -->
            <feature>
              <rects>
                <_>
                  0 3 15 9 -1.</_>
                <_>
                  5 6 5 3 9.</_></rects>
              <tilted>0</tilted></feature>
            <threshold>0.0470176711678505</threshold>
            <left_val>1.</left_val>
            <right_val>-1.</right_val></_></_></trees>
      <stage_threshold>1.</stage_threshold>
      <parent>9</parent>
      <next>-1</next></_>
    <_>
      <!-- stage 11 -->
      <trees>
        <_>
          <!-- tree 0 -->
          <_>
            <!-- root node -->
            <feature>
              <rects>
                <_>
                  0 0 2 2 -1.</_>
                <_>
                  0 0 1 1 2.</_>
                <_>
                  1 1 1 1 2.</_></rects>
              <tilted>0</tilted></feature>
            <threshold>1.6559819923713803e-003</threshold>
            <left_val>1.</left_val>
            <right_val>-1.</right_val></_></_></trees>
      <stage_threshold>1.</stage_threshold>
      <parent>10</parent>
      <next>-1</next></_>
    <_>
      <!-- stage 12 -->
      <trees>
        <_>
          <!-- tree 0 -->
          <_>
            <!-- root node -->
            <feature>
              <rects>
                <_>
                  0 0 16 20 -1.</_>
                <_>
                  0 0 8 10 2.</_>
                <_>
                  8 10 8 10 2.</_></rects>
              <tilted>0</tilted></feature>
            <threshold>-5.2042040042579174e-003</threshold>
            <left_val>1.</left_val>
            <right_val>-1.</right_val></_></_></trees>
      <stage_threshold>1.</stage_threshold>
      <parent>11</parent>
      <next>-1</next></_>
    <_>
      <!-- stage 13 -->
      <trees>
        <_>
          <!-- tree 0 -->
          <_>
            <!-- root node -->
            <feature>
              <rects>
                <_>
                  0 0 3 2 -1.</_>
                <_>
                  0 1 3 1 2.</_></rects>
              <tilted>0</tilted></feature>
            <threshold>-7.2538061067461967e-004</threshold>
            <left_val>-1.</left_val>
            <right_val>1.</right_val></_></_></trees>
      <stage_threshold>1.</stage_threshold>
      <parent>12</parent>
      <next>-1</next></_>
    <_>
      <!-- stage 14 -->
      <trees>
        <_>
          <!-- tree 0 -->
          <_>
            <!-- root node -->
            <feature>
              <rects>
                <_>
                  0 0 6 1 -1.</_>
                <_>
                  3 0 3 1 2.</_></rects>
              <tilted>0</tilted></feature>
            <threshold>-6.0863047838211060e-004</threshold>
            <left_val>-1.</left_val>
            <right_val>1.</right_val></_></_></trees>
      <stage_threshold>1.</stage_threshold>
      <parent>13</parent>
      <next>-1</next></_>
    <_>
      <!-- stage 15 -->
      <trees>
        <_>
          <!-- tree 0 -->
          <_>
            <!-- root node -->
            <feature>
              <rects>
                <_>
                  0 0 20 14 -1.</_>
                <_>
                  10 0 10 14 2.</_></rects>
              <tilted>0</tilted></feature>
            <threshold>-0.1109331026673317</threshold>
            <left_val>-1.</left_val>
            <right_val>1.</right_val></_></_></trees>
      <stage_threshold>1.</stage_threshold>
      <parent>14</parent>
      <next>-1</next></_>
    <_>
      <!-- stage 16 -->
      <trees>
        <_>
          <!-- tree 0 -->
          <_>
            <!-- root node -->
            <feature>
              <rects>
                <_>
                  0 0 2 16 -1.</_>
                <_>
                  0 8 2 8 2.</_></rects>
              <tilted>0</tilted></feature>
            <threshold>0.0382360890507698</threshold>
            <left_val>1.</left_val>
            <right_val>-1.</right_val></_></_></trees>
      <stage_threshold>1.</stage_threshold>
      <parent>15</parent>
      <next>-1</next></_>
    <_>
      <!-- stage 17 -->
      <trees>
        <_>
          <!-- tree 0 -->
          <_>
            <!-- root node -->
            <feature>
              <rects>
                <_>
                  0 1 6 16 -1.</_>
                <_>
                  0 1 3 8 2.</_>
                <_>
                  3 9 3 8 2.</_></rects>
              <tilted>0</tilted></feature>
            <threshold>-3.1001630122773349e-004</threshold>
            <left_val>-1.</left_val>
            <right_val>1.</right_val></_></_></trees>
      <stage_threshold>1.</stage_threshold>
      <parent>16</parent>
      <next>-1</next></_>
    <_>
      <!-- stage 18 -->
      <trees>
        <_>
          <!-- tree 0 -->
          <_>
            <!-- root node -->
            <feature>
              <rects>
                <_>
                  6 0 5 3 -1.</_>
                <_>
                  6 1 5 1 3.</_></rects>
              <tilted>0</tilted></feature>
            <threshold>-1.6358069842681289e-003</threshold>
            <left_val>1.</left_val>
            <right_val>-1.</right_val></_></_></trees>
      <stage_threshold>1.</stage_threshold>
      <parent>17</parent>
      <next>-1</next></_>
    <_>
      <!-- stage 19 -->
      <trees>
        <_>
          <!-- tree 0 -->
          <_>
            <!-- root node -->
            <feature>
              <rects>
                <_>
                  0 2 18 8 -1.</_>
                <_>
                  0 2 9 4 2.</_>
                <_>
                  9 6 9 4 2.</_></rects>
              <tilted>0</tilted></feature>
            <threshold>-0.0525976009666920</threshold>
            <left_val>-1.</left_val>
            <right_val>1.</right_val></_></_></trees>
      <stage_threshold>1.</stage_threshold>
      <parent>18</parent>
      <next>-1</next></_></stages></nopark_F_cascade>
</opencv_storage>
