<?xml version="1.0"?>
<opencv_storage>
<!-- Automatically converted from nopark3_cascade2, window size = 20x20 -->
<nopark3_cascade2 type_id="opencv-haar-classifier">
  <size>
    20 20</size>
  <stages>
    <_>
      <!-- stage 0 -->
      <trees>
        <_>
          <!-- tree 0 -->
          <_>
            <!-- root node -->
            <feature>
              <rects>
                <_>
                  16 0 4 3 -1.</_>
                <_>
                  15 1 4 1 3.</_></rects>
              <tilted>1</tilted></feature>
            <threshold>-0.0110705299302936</threshold>
            <left_val>0.7338609099388123</left_val>
            <right_val>-0.7222428917884827</right_val></_></_>
        <_>
          <!-- tree 1 -->
          <_>
            <!-- root node -->
            <feature>
              <rects>
                <_>
                  9 3 4 3 -1.</_>
                <_>
                  8 4 4 1 3.</_></rects>
              <tilted>1</tilted></feature>
            <threshold>6.0636401176452637e-003</threshold>
            <left_val>-0.7788081765174866</left_val>
            <right_val>0.6049115061759949</right_val></_></_></trees>
      <stage_threshold>-0.1173314005136490</stage_threshold>
      <parent>-1</parent>
      <next>-1</next></_>
    <_>
      <!-- stage 1 -->
      <trees>
        <_>
          <!-- tree 0 -->
          <_>
            <!-- root node -->
            <feature>
              <rects>
                <_>
                  18 0 1 20 -1.</_>
                <_>
                  18 5 1 10 2.</_></rects>
              <tilted>0</tilted></feature>
            <threshold>-0.0412073209881783</threshold>
            <left_val>0.8910009860992432</left_val>
            <right_val>-0.5478537082672119</right_val></_></_>
        <_>
          <!-- tree 1 -->
          <_>
            <!-- root node -->
            <feature>
              <rects>
                <_>
                  0 7 3 6 -1.</_>
                <_>
                  1 7 1 6 3.</_></rects>
              <tilted>0</tilted></feature>
            <threshold>-2.8172670863568783e-003</threshold>
            <left_val>0.6308979988098145</left_val>
            <right_val>-0.8174216747283936</right_val></_></_></trees>
      <stage_threshold>0.0735793709754944</stage_threshold>
      <parent>0</parent>
      <next>-1</next></_>
    <_>
      <!-- stage 2 -->
      <trees>
        <_>
          <!-- tree 0 -->
          <_>
            <!-- root node -->
            <feature>
              <rects>
                <_>
                  17 13 3 4 -1.</_>
                <_>
                  18 14 1 4 3.</_></rects>
              <tilted>1</tilted></feature>
            <threshold>-0.0212993193417788</threshold>
            <left_val>0.8592606782913208</left_val>
            <right_val>-0.5430505871772766</right_val></_></_>
        <_>
          <!-- tree 1 -->
          <_>
            <!-- root node -->
            <feature>
              <rects>
                <_>
                  2 3 5 6 -1.</_>
                <_>
                  2 5 5 2 3.</_></rects>
              <tilted>0</tilted></feature>
            <threshold>-7.4577149935066700e-003</threshold>
            <left_val>0.5592038035392761</left_val>
            <right_val>-0.7769327759742737</right_val></_></_></trees>
      <stage_threshold>0.0161532200872898</stage_threshold>
      <parent>1</parent>
      <next>-1</next></_>
    <_>
      <!-- stage 3 -->
      <trees>
        <_>
          <!-- tree 0 -->
          <_>
            <!-- root node -->
            <feature>
              <rects>
                <_>
                  4 1 2 4 -1.</_>
                <_>
                  4 1 1 4 2.</_></rects>
              <tilted>1</tilted></feature>
            <threshold>0.0277063995599747</threshold>
            <left_val>-0.4801240861415863</left_val>
            <right_val>0.9075540900230408</right_val></_></_>
        <_>
          <!-- tree 1 -->
          <_>
            <!-- root node -->
            <feature>
              <rects>
                <_>
                  8 6 6 8 -1.</_>
                <_>
                  6 8 6 4 2.</_></rects>
              <tilted>1</tilted></feature>
            <threshold>0.0907039493322372</threshold>
            <left_val>-0.4962070882320404</left_val>
            <right_val>0.9016008973121643</right_val></_></_>
        <_>
          <!-- tree 2 -->
          <_>
            <!-- root node -->
            <feature>
              <rects>
                <_>
                  17 16 3 1 -1.</_>
                <_>
                  18 17 1 1 3.</_></rects>
              <tilted>1</tilted></feature>
            <threshold>8.4616579115390778e-003</threshold>
            <left_val>-0.5091028809547424</left_val>
            <right_val>0.8190492987632752</right_val></_></_></trees>
      <stage_threshold>-0.1572819054126740</stage_threshold>
      <parent>2</parent>
      <next>-1</next></_>
    <_>
      <!-- stage 4 -->
      <trees>
        <_>
          <!-- tree 0 -->
          <_>
            <!-- root node -->
            <feature>
              <rects>
                <_>
                  18 4 2 11 -1.</_>
                <_>
                  19 4 1 11 2.</_></rects>
              <tilted>0</tilted></feature>
            <threshold>0.0217176992446184</threshold>
            <left_val>-0.5151528716087341</left_val>
            <right_val>0.8361017107963562</right_val></_></_>
        <_>
          <!-- tree 1 -->
          <_>
            <!-- root node -->
            <feature>
              <rects>
                <_>
                  4 13 3 2 -1.</_>
                <_>
                  4 13 3 1 2.</_></rects>
              <tilted>1</tilted></feature>
            <threshold>0.0171438604593277</threshold>
            <left_val>-0.4850868880748749</left_val>
            <right_val>0.8192929029464722</right_val></_></_>
        <_>
          <!-- tree 2 -->
          <_>
            <!-- root node -->
            <feature>
              <rects>
                <_>
                  9 4 11 10 -1.</_>
                <_>
                  9 9 11 5 2.</_></rects>
              <tilted>0</tilted></feature>
            <threshold>-0.0113379796966910</threshold>
            <left_val>0.4449762105941773</left_val>
            <right_val>-1.0000250339508057</right_val></_></_></trees>
      <stage_threshold>-0.5552635192871094</stage_threshold>
      <parent>3</parent>
      <next>-1</next></_>
    <_>
      <!-- stage 5 -->
      <trees>
        <_>
          <!-- tree 0 -->
          <_>
            <!-- root node -->
            <feature>
              <rects>
                <_>
                  18 4 2 11 -1.</_>
                <_>
                  19 4 1 11 2.</_></rects>
              <tilted>0</tilted></feature>
            <threshold>0.0218323804438114</threshold>
            <left_val>-0.5117989778518677</left_val>
            <right_val>0.8158590197563171</right_val></_></_>
        <_>
          <!-- tree 1 -->
          <_>
            <!-- root node -->
            <feature>
              <rects>
                <_>
                  4 13 4 2 -1.</_>
                <_>
                  4 13 4 1 2.</_></rects>
              <tilted>1</tilted></feature>
            <threshold>0.0211911797523499</threshold>
            <left_val>-0.4896667003631592</left_val>
            <right_val>0.8336020112037659</right_val></_></_>
        <_>
          <!-- tree 2 -->
          <_>
            <!-- root node -->
            <feature>
              <rects>
                <_>
                  14 8 2 8 -1.</_>
                <_>
                  14 8 1 8 2.</_></rects>
              <tilted>1</tilted></feature>
            <threshold>2.4210829287767410e-003</threshold>
            <left_val>0.4421747922897339</left_val>
            <right_val>-1.0000209808349609</right_val></_></_></trees>
      <stage_threshold>-0.5592908859252930</stage_threshold>
      <parent>4</parent>
      <next>-1</next></_>
    <_>
      <!-- stage 6 -->
      <trees>
        <_>
          <!-- tree 0 -->
          <_>
            <!-- root node -->
            <feature>
              <rects>
                <_>
                  11 7 4 7 -1.</_>
                <_>
                  12 8 2 7 2.</_></rects>
              <tilted>1</tilted></feature>
            <threshold>-5.1455358043313026e-003</threshold>
            <left_val>-0.9407814145088196</left_val>
            <right_val>0.4798161983489990</right_val></_></_>
        <_>
          <!-- tree 1 -->
          <_>
            <!-- root node -->
            <feature>
              <rects>
                <_>
                  1 13 1 4 -1.</_>
                <_>
                  1 15 1 2 2.</_></rects>
              <tilted>0</tilted></feature>
            <threshold>8.0654136836528778e-003</threshold>
            <left_val>-0.5303152203559876</left_val>
            <right_val>0.8027650713920593</right_val></_></_></trees>
      <stage_threshold>-0.1380162984132767</stage_threshold>
      <parent>5</parent>
      <next>-1</next></_>
    <_>
      <!-- stage 7 -->
      <trees>
        <_>
          <!-- tree 0 -->
          <_>
            <!-- root node -->
            <feature>
              <rects>
                <_>
                  18 5 2 2 -1.</_>
                <_>
                  19 5 1 2 2.</_></rects>
              <tilted>0</tilted></feature>
            <threshold>6.5321121364831924e-003</threshold>
            <left_val>-0.5059689283370972</left_val>
            <right_val>0.7823417186737061</right_val></_></_>
        <_>
          <!-- tree 1 -->
          <_>
            <!-- root node -->
            <feature>
              <rects>
                <_>
                  17 5 1 8 -1.</_>
                <_>
                  17 9 1 4 2.</_></rects>
              <tilted>0</tilted></feature>
            <threshold>9.8231877200305462e-004</threshold>
            <left_val>-0.6451435089111328</left_val>
            <right_val>0.6377032995223999</right_val></_></_></trees>
      <stage_threshold>0.1317344009876251</stage_threshold>
      <parent>6</parent>
      <next>-1</next></_>
    <_>
      <!-- stage 8 -->
      <trees>
        <_>
          <!-- tree 0 -->
          <_>
            <!-- root node -->
            <feature>
              <rects>
                <_>
                  6 0 9 2 -1.</_>
                <_>
                  6 1 9 1 2.</_></rects>
              <tilted>0</tilted></feature>
            <threshold>-0.0159725192934275</threshold>
            <left_val>0.7209572792053223</left_val>
            <right_val>-0.4943194985389710</right_val></_></_>
        <_>
          <!-- tree 1 -->
          <_>
            <!-- root node -->
            <feature>
              <rects>
                <_>
                  4 13 2 2 -1.</_>
                <_>
                  4 13 2 1 2.</_></rects>
              <tilted>1</tilted></feature>
            <threshold>0.0109945703297853</threshold>
            <left_val>-0.4745551049709320</left_val>
            <right_val>0.7532116174697876</right_val></_></_>
        <_>
          <!-- tree 2 -->
          <_>
            <!-- root node -->
            <feature>
              <rects>
                <_>
                  6 11 12 6 -1.</_>
                <_>
                  6 13 12 2 3.</_></rects>
              <tilted>0</tilted></feature>
            <threshold>-1.2911659432575107e-003</threshold>
            <left_val>0.4088365137577057</left_val>
            <right_val>-0.9746788740158081</right_val></_></_></trees>
      <stage_threshold>-0.5600382089614868</stage_threshold>
      <parent>7</parent>
      <next>-1</next></_>
    <_>
      <!-- stage 9 -->
      <trees>
        <_>
          <!-- tree 0 -->
          <_>
            <!-- root node -->
            <feature>
              <rects>
                <_>
                  3 12 12 4 -1.</_>
                <_>
                  3 13 12 2 2.</_></rects>
              <tilted>0</tilted></feature>
            <threshold>-3.3933180384337902e-003</threshold>
            <left_val>-1.</left_val>
            <right_val>0.4094507098197937</right_val></_></_></trees>
      <stage_threshold>0.4094507098197937</stage_threshold>
      <parent>8</parent>
      <next>-1</next></_>
    <_>
      <!-- stage 10 -->
      <trees>
        <_>
          <!-- tree 0 -->
          <_>
            <!-- root node -->
            <feature>
              <rects>
                <_>
                  6 0 1 3 -1.</_>
                <_>
                  6 1 1 1 3.</_></rects>
              <tilted>0</tilted></feature>
            <threshold>-2.5322579313069582e-003</threshold>
            <left_val>0.6405782103538513</left_val>
            <right_val>-0.5528789162635803</right_val></_></_>
        <_>
          <!-- tree 1 -->
          <_>
            <!-- root node -->
            <feature>
              <rects>
                <_>
                  8 11 9 2 -1.</_>
                <_>
                  8 12 9 1 2.</_></rects>
              <tilted>0</tilted></feature>
            <threshold>-1.3834870187565684e-003</threshold>
            <left_val>-1.</left_val>
            <right_val>0.3561854958534241</right_val></_></_></trees>
      <stage_threshold>-0.1966933012008667</stage_threshold>
      <parent>9</parent>
      <next>-1</next></_>
    <_>
      <!-- stage 11 -->
      <trees>
        <_>
          <!-- tree 0 -->
          <_>
            <!-- root node -->
            <feature>
              <rects>
                <_>
                  5 0 2 4 -1.</_>
                <_>
                  5 1 2 2 2.</_></rects>
              <tilted>0</tilted></feature>
            <threshold>-4.7335438430309296e-003</threshold>
            <left_val>0.6157379746437073</left_val>
            <right_val>-0.5746902823448181</right_val></_></_>
        <_>
          <!-- tree 1 -->
          <_>
            <!-- root node -->
            <feature>
              <rects>
                <_>
                  4 16 11 2 -1.</_>
                <_>
                  4 17 11 1 2.</_></rects>
              <tilted>0</tilted></feature>
            <threshold>-8.1473216414451599e-003</threshold>
            <left_val>0.6703364849090576</left_val>
            <right_val>-0.5017762780189514</right_val></_></_>
        <_>
          <!-- tree 2 -->
          <_>
            <!-- root node -->
            <feature>
              <rects>
                <_>
                  0 6 2 4 -1.</_>
                <_>
                  0 6 1 2 2.</_>
                <_>
                  1 8 1 2 2.</_></rects>
              <tilted>0</tilted></feature>
            <threshold>3.5686909686774015e-003</threshold>
            <left_val>-0.5778170824050903</left_val>
            <right_val>0.7034109234809876</right_val></_></_></trees>
      <stage_threshold>-0.4821709096431732</stage_threshold>
      <parent>10</parent>
      <next>-1</next></_>
    <_>
      <!-- stage 12 -->
      <trees>
        <_>
          <!-- tree 0 -->
          <_>
            <!-- root node -->
            <feature>
              <rects>
                <_>
                  12 10 8 4 -1.</_>
                <_>
                  12 10 4 2 2.</_>
                <_>
                  16 12 4 2 2.</_></rects>
              <tilted>0</tilted></feature>
            <threshold>2.4019130505621433e-003</threshold>
            <left_val>-0.7056918144226074</left_val>
            <right_val>0.4858725965023041</right_val></_></_>
        <_>
          <!-- tree 1 -->
          <_>
            <!-- root node -->
            <feature>
              <rects>
                <_>
                  7 11 12 2 -1.</_>
                <_>
                  7 12 12 1 2.</_></rects>
              <tilted>0</tilted></feature>
            <threshold>1.0385540081188083e-003</threshold>
            <left_val>0.4149161875247955</left_val>
            <right_val>-0.8001450896263123</right_val></_></_>
        <_>
          <!-- tree 2 -->
          <_>
            <!-- root node -->
            <feature>
              <rects>
                <_>
                  16 2 1 4 -1.</_>
                <_>
                  16 3 1 2 2.</_></rects>
              <tilted>0</tilted></feature>
            <threshold>-3.8295190315693617e-003</threshold>
            <left_val>0.6184743046760559</left_val>
            <right_val>-0.5329650044441223</right_val></_></_></trees>
      <stage_threshold>-0.8237404823303223</stage_threshold>
      <parent>11</parent>
      <next>-1</next></_>
    <_>
      <!-- stage 13 -->
      <trees>
        <_>
          <!-- tree 0 -->
          <_>
            <!-- root node -->
            <feature>
              <rects>
                <_>
                  12 11 8 2 -1.</_>
                <_>
                  12 11 4 1 2.</_>
                <_>
                  16 12 4 1 2.</_></rects>
              <tilted>0</tilted></feature>
            <threshold>5.5405771126970649e-004</threshold>
            <left_val>-0.7186375260353088</left_val>
            <right_val>0.5344594717025757</right_val></_></_>
        <_>
          <!-- tree 1 -->
          <_>
            <!-- root node -->
            <feature>
              <rects>
                <_>
                  5 12 1 4 -1.</_>
                <_>
                  5 13 1 2 2.</_></rects>
              <tilted>0</tilted></feature>
            <threshold>5.5041257292032242e-004</threshold>
            <left_val>0.2856996059417725</left_val>
            <right_val>-1.0000259876251221</right_val></_></_>
        <_>
          <!-- tree 2 -->
          <_>
            <!-- root node -->
            <feature>
              <rects>
                <_>
                  0 15 3 2 -1.</_>
                <_>
                  1 15 1 2 3.</_></rects>
              <tilted>0</tilted></feature>
            <threshold>4.5053688809275627e-003</threshold>
            <left_val>-0.5630282163619995</left_val>
            <right_val>0.6197193861007690</right_val></_></_>
        <_>
          <!-- tree 3 -->
          <_>
            <!-- root node -->
            <feature>
              <rects>
                <_>
                  8 15 6 4 -1.</_>
                <_>
                  8 17 6 2 2.</_></rects>
              <tilted>0</tilted></feature>
            <threshold>-0.0113528603687882</threshold>
            <left_val>0.6372702717781067</left_val>
            <right_val>-0.5412340164184570</right_val></_></_></trees>
      <stage_threshold>-0.3586958050727844</stage_threshold>
      <parent>12</parent>
      <next>-1</next></_>
    <_>
      <!-- stage 14 -->
      <trees>
        <_>
          <!-- tree 0 -->
          <_>
            <!-- root node -->
            <feature>
              <rects>
                <_>
                  12 17 4 2 -1.</_>
                <_>
                  12 17 2 1 2.</_>
                <_>
                  14 18 2 1 2.</_></rects>
              <tilted>0</tilted></feature>
            <threshold>4.2460761032998562e-003</threshold>
            <left_val>-0.5325812101364136</left_val>
            <right_val>0.6676328182220459</right_val></_></_>
        <_>
          <!-- tree 1 -->
          <_>
            <!-- root node -->
            <feature>
              <rects>
                <_>
                  17 3 3 8 -1.</_>
                <_>
                  18 4 1 8 3.</_></rects>
              <tilted>1</tilted></feature>
            <threshold>-6.0738660395145416e-003</threshold>
            <left_val>-1.</left_val>
            <right_val>0.3276416957378388</right_val></_></_>
        <_>
          <!-- tree 2 -->
          <_>
            <!-- root node -->
            <feature>
              <rects>
                <_>
                  7 8 4 10 -1.</_>
                <_>
                  8 8 2 10 2.</_></rects>
              <tilted>0</tilted></feature>
            <threshold>-1.4700929750688374e-004</threshold>
            <left_val>0.2594347894191742</left_val>
            <right_val>-0.8894569277763367</right_val></_></_></trees>
      <stage_threshold>0.0544953010976315</stage_threshold>
      <parent>13</parent>
      <next>-1</next></_>
    <_>
      <!-- stage 15 -->
      <trees>
        <_>
          <!-- tree 0 -->
          <_>
            <!-- root node -->
            <feature>
              <rects>
                <_>
                  2 17 9 3 -1.</_>
                <_>
                  5 18 3 1 9.</_></rects>
              <tilted>0</tilted></feature>
            <threshold>-0.0309022106230259</threshold>
            <left_val>0.7262613773345947</left_val>
            <right_val>-0.4953863918781281</right_val></_></_>
        <_>
          <!-- tree 1 -->
          <_>
            <!-- root node -->
            <feature>
              <rects>
                <_>
                  17 6 3 7 -1.</_>
                <_>
                  18 7 1 7 3.</_></rects>
              <tilted>1</tilted></feature>
            <threshold>-2.9315031133592129e-003</threshold>
            <left_val>-0.9166830778121948</left_val>
            <right_val>0.4267894029617310</right_val></_></_>
        <_>
          <!-- tree 2 -->
          <_>
            <!-- root node -->
            <feature>
              <rects>
                <_>
                  11 16 4 2 -1.</_>
                <_>
                  12 16 2 2 2.</_></rects>
              <tilted>0</tilted></feature>
            <threshold>-1.8566350627224892e-004</threshold>
            <left_val>-0.8594524264335632</left_val>
            <right_val>0.4108079075813294</right_val></_></_></trees>
      <stage_threshold>-0.9280493855476379</stage_threshold>
      <parent>14</parent>
      <next>-1</next></_>
    <_>
      <!-- stage 16 -->
      <trees>
        <_>
          <!-- tree 0 -->
          <_>
            <!-- root node -->
            <feature>
              <rects>
                <_>
                  6 1 6 12 -1.</_>
                <_>
                  8 5 2 4 9.</_></rects>
              <tilted>0</tilted></feature>
            <threshold>-0.0270672608166933</threshold>
            <left_val>-0.9339349865913391</left_val>
            <right_val>0.4055312871932983</right_val></_></_>
        <_>
          <!-- tree 1 -->
          <_>
            <!-- root node -->
            <feature>
              <rects>
                <_>
                  4 16 2 3 -1.</_>
                <_>
                  4 17 2 1 3.</_></rects>
              <tilted>0</tilted></feature>
            <threshold>-2.8915470466017723e-003</threshold>
            <left_val>0.8121162056922913</left_val>
            <right_val>-0.5793725252151489</right_val></_></_>
        <_>
          <!-- tree 2 -->
          <_>
            <!-- root node -->
            <feature>
              <rects>
                <_>
                  11 16 4 2 -1.</_>
                <_>
                  12 16 2 2 2.</_></rects>
              <tilted>0</tilted></feature>
            <threshold>-1.8566350627224892e-004</threshold>
            <left_val>-0.9130277037620544</left_val>
            <right_val>0.5413296222686768</right_val></_></_></trees>
      <stage_threshold>0.3046197891235352</stage_threshold>
      <parent>15</parent>
      <next>-1</next></_></stages></nopark3_cascade2>
</opencv_storage>
