<?xml version="1.0"?>
<opencv_storage>
<nopark3_1000_cascade type_id="opencv-haar-classifier">
  <size>
    20 20</size>
  <stages>
    <_>
      <!-- stage 0 -->
      <trees>
        <_>
          <!-- tree 0 -->
          <_>
            <!-- root node -->
            <feature>
              <rects>
                <_>
                  0 6 3 9 -1.</_>
                <_>
                  1 6 1 9 3.</_></rects>
              <tilted>0</tilted></feature>
            <threshold>-0.0109235001727939</threshold>
            <left_val>0.8262825012207031</left_val>
            <right_node>1</right_node></_>
          <_>
            <!-- node 1 -->
            <feature>
              <rects>
                <_>
                  2 13 5 2 -1.</_>
                <_>
                  2 13 5 1 2.</_></rects>
              <tilted>1</tilted></feature>
            <threshold>0.0343475192785263</threshold>
            <left_val>-0.9573562145233154</left_val>
            <right_val>0.9511994719505310</right_val></_></_>
        <_>
          <!-- tree 1 -->
          <_>
            <!-- root node -->
            <feature>
              <rects>
                <_>
                  18 0 1 20 -1.</_>
                <_>
                  18 5 1 10 2.</_></rects>
              <tilted>0</tilted></feature>
            <threshold>-0.0490001812577248</threshold>
            <left_val>0.9760681986808777</left_val>
            <right_node>1</right_node></_>
          <_>
            <!-- node 1 -->
            <feature>
              <rects>
                <_>
                  4 10 6 4 -1.</_>
                <_>
                  4 10 6 2 2.</_></rects>
              <tilted>1</tilted></feature>
            <threshold>0.0745289772748947</threshold>
            <left_val>-0.9671481251716614</left_val>
            <right_val>0.8026083111763001</right_val></_></_></trees>
      <stage_threshold>-0.1408655941486359</stage_threshold>
      <parent>-1</parent>
      <next>-1</next></_>
    <_>
      <!-- stage 1 -->
      <trees>
        <_>
          <!-- tree 0 -->
          <_>
            <!-- root node -->
            <feature>
              <rects>
                <_>
                  16 0 4 3 -1.</_>
                <_>
                  15 1 4 1 3.</_></rects>
              <tilted>1</tilted></feature>
            <threshold>-0.0122163901105523</threshold>
            <left_val>0.7910470962524414</left_val>
            <right_node>1</right_node></_>
          <_>
            <!-- node 1 -->
            <feature>
              <rects>
                <_>
                  16 0 4 4 -1.</_>
                <_>
                  16 0 4 2 2.</_></rects>
              <tilted>1</tilted></feature>
            <threshold>-0.0797480493783951</threshold>
            <left_val>0.9512196183204651</left_val>
            <right_val>-0.9146195054054260</right_val></_></_>
        <_>
          <!-- tree 1 -->
          <_>
            <!-- root node -->
            <feature>
              <rects>
                <_>
                  4 1 2 3 -1.</_>
                <_>
                  4 2 2 1 3.</_></rects>
              <tilted>0</tilted></feature>
            <threshold>-2.6275468990206718e-003</threshold>
            <left_node>1</left_node>
            <right_val>-0.7420424222946167</right_val></_>
          <_>
            <!-- node 1 -->
            <feature>
              <rects>
                <_>
                  1 1 5 12 -1.</_>
                <_>
                  1 5 5 4 3.</_></rects>
              <tilted>0</tilted></feature>
            <threshold>-0.0125624099746346</threshold>
            <left_val>0.9070165157318115</left_val>
            <right_val>-1.0000040531158447</right_val></_></_></trees>
      <stage_threshold>-7.6029901392757893e-003</stage_threshold>
      <parent>0</parent>
      <next>-1</next></_>
    <_>
      <!-- stage 2 -->
      <trees>
        <_>
          <!-- tree 0 -->
          <_>
            <!-- root node -->
            <feature>
              <rects>
                <_>
                  17 13 3 4 -1.</_>
                <_>
                  18 14 1 4 3.</_></rects>
              <tilted>1</tilted></feature>
            <threshold>-0.0212993193417788</threshold>
            <left_val>0.8556718826293945</left_val>
            <right_node>1</right_node></_>
          <_>
            <!-- node 1 -->
            <feature>
              <rects>
                <_>
                  6 16 13 4 -1.</_>
                <_>
                  6 18 13 2 2.</_></rects>
              <tilted>0</tilted></feature>
            <threshold>-0.0545055717229843</threshold>
            <left_val>0.6551725268363953</left_val>
            <right_val>-0.9143391251564026</right_val></_></_>
        <_>
          <!-- tree 1 -->
          <_>
            <!-- root node -->
            <feature>
              <rects>
                <_>
                  9 4 11 10 -1.</_>
                <_>
                  9 9 11 5 2.</_></rects>
              <tilted>0</tilted></feature>
            <threshold>-0.0113309295848012</threshold>
            <left_node>1</left_node>
            <right_val>-0.9999908208847046</right_val></_>
          <_>
            <!-- node 1 -->
            <feature>
              <rects>
                <_>
                  12 11 6 6 -1.</_>
                <_>
                  12 13 6 2 3.</_></rects>
              <tilted>0</tilted></feature>
            <threshold>-1.4833270106464624e-003</threshold>
            <left_val>0.6458284258842468</left_val>
            <right_val>-0.9999871850013733</right_val></_></_></trees>
      <stage_threshold>-0.2685106992721558</stage_threshold>
      <parent>1</parent>
      <next>-1</next></_>
    <_>
      <!-- stage 3 -->
      <trees>
        <_>
          <!-- tree 0 -->
          <_>
            <!-- root node -->
            <feature>
              <rects>
                <_>
                  4 1 2 4 -1.</_>
                <_>
                  4 1 1 4 2.</_></rects>
              <tilted>1</tilted></feature>
            <threshold>0.0276795793324709</threshold>
            <left_node>1</left_node>
            <right_val>0.8723207712173462</right_val></_>
          <_>
            <!-- node 1 -->
            <feature>
              <rects>
                <_>
                  10 8 4 8 -1.</_>
                <_>
                  8 10 4 4 2.</_></rects>
              <tilted>1</tilted></feature>
            <threshold>0.0871422514319420</threshold>
            <left_val>-0.9180325865745544</left_val>
            <right_val>0.8808447122573853</right_val></_></_>
        <_>
          <!-- tree 1 -->
          <_>
            <!-- root node -->
            <feature>
              <rects>
                <_>
                  11 10 2 3 -1.</_>
                <_>
                  11 10 1 3 2.</_></rects>
              <tilted>1</tilted></feature>
            <threshold>7.1276398375630379e-004</threshold>
            <left_node>1</left_node>
            <right_val>-1.0000189542770386</right_val></_>
          <_>
            <!-- node 1 -->
            <feature>
              <rects>
                <_>
                  10 9 3 3 -1.</_>
                <_>
                  11 10 1 3 3.</_></rects>
              <tilted>1</tilted></feature>
            <threshold>-2.5361960288137197e-003</threshold>
            <left_val>-1.</left_val>
            <right_val>0.5909302830696106</right_val></_></_></trees>
      <stage_threshold>-0.3271023035049439</stage_threshold>
      <parent>2</parent>
      <next>-1</next></_>
    <_>
      <!-- stage 4 -->
      <trees>
        <_>
          <!-- tree 0 -->
          <_>
            <!-- root node -->
            <feature>
              <rects>
                <_>
                  4 13 4 3 -1.</_>
                <_>
                  3 14 4 1 3.</_></rects>
              <tilted>1</tilted></feature>
            <threshold>-0.0168656501919031</threshold>
            <left_val>0.7391331791877747</left_val>
            <right_node>1</right_node></_>
          <_>
            <!-- node 1 -->
            <feature>
              <rects>
                <_>
                  0 6 5 14 -1.</_>
                <_>
                  0 13 5 7 2.</_></rects>
              <tilted>0</tilted></feature>
            <threshold>-0.1149965971708298</threshold>
            <left_val>0.6300936937332153</left_val>
            <right_val>-0.9531000852584839</right_val></_></_>
        <_>
          <!-- tree 1 -->
          <_>
            <!-- root node -->
            <feature>
              <rects>
                <_>
                  9 3 4 3 -1.</_>
                <_>
                  8 4 4 1 3.</_></rects>
              <tilted>1</tilted></feature>
            <threshold>6.0645649209618568e-003</threshold>
            <left_val>-0.7391182780265808</left_val>
            <right_node>1</right_node></_>
          <_>
            <!-- node 1 -->
            <feature>
              <rects>
                <_>
                  5 6 11 4 -1.</_>
                <_>
                  5 7 11 2 2.</_></rects>
              <tilted>0</tilted></feature>
            <threshold>4.0035729762166739e-004</threshold>
            <left_val>0.7084593176841736</left_val>
            <right_val>-0.9999911189079285</right_val></_></_></trees>
      <stage_threshold>-0.2446407973766327</stage_threshold>
      <parent>3</parent>
      <next>-1</next></_>
    <_>
      <!-- stage 5 -->
      <trees>
        <_>
          <!-- tree 0 -->
          <_>
            <!-- root node -->
            <feature>
              <rects>
                <_>
                  18 4 2 11 -1.</_>
                <_>
                  19 4 1 11 2.</_></rects>
              <tilted>0</tilted></feature>
            <threshold>0.0217407792806625</threshold>
            <left_node>1</left_node>
            <right_val>0.7856894731521606</right_val></_>
          <_>
            <!-- node 1 -->
            <feature>
              <rects>
                <_>
                  16 1 4 12 -1.</_>
                <_>
                  18 1 2 12 2.</_></rects>
              <tilted>0</tilted></feature>
            <threshold>-0.0575707405805588</threshold>
            <left_val>0.8181818127632141</left_val>
            <right_val>-0.9559410810470581</right_val></_></_>
        <_>
          <!-- tree 1 -->
          <_>
            <!-- root node -->
            <feature>
              <rects>
                <_>
                  17 16 3 1 -1.</_>
                <_>
                  18 17 1 1 3.</_></rects>
              <tilted>1</tilted></feature>
            <threshold>8.4737837314605713e-003</threshold>
            <left_node>1</left_node>
            <right_val>0.6546593904495239</right_val></_>
          <_>
            <!-- node 1 -->
            <feature>
              <rects>
                <_>
                  10 10 8 10 -1.</_>
                <_>
                  10 10 4 5 2.</_>
                <_>
                  14 15 4 5 2.</_></rects>
              <tilted>0</tilted></feature>
            <threshold>-0.0548662692308426</threshold>
            <left_val>0.5093066096305847</left_val>
            <right_val>-0.8920028805732727</right_val></_></_></trees>
      <stage_threshold>-0.3012816905975342</stage_threshold>
      <parent>4</parent>
      <next>-1</next></_>
    <_>
      <!-- stage 6 -->
      <trees>
        <_>
          <!-- tree 0 -->
          <_>
            <!-- root node -->
            <feature>
              <rects>
                <_>
                  12 0 6 2 -1.</_>
                <_>
                  12 0 3 1 2.</_>
                <_>
                  15 1 3 1 2.</_></rects>
              <tilted>0</tilted></feature>
            <threshold>7.5416360050439835e-003</threshold>
            <left_node>1</left_node>
            <right_val>0.7093775272369385</right_val></_>
          <_>
            <!-- node 1 -->
            <feature>
              <rects>
                <_>
                  7 8 6 4 -1.</_>
                <_>
                  7 8 3 2 2.</_>
                <_>
                  10 10 3 2 2.</_></rects>
              <tilted>0</tilted></feature>
            <threshold>-0.0170753598213196</threshold>
            <left_val>0.5483871102333069</left_val>
            <right_val>-0.8622220754623413</right_val></_></_>
        <_>
          <!-- tree 1 -->
          <_>
            <!-- root node -->
            <feature>
              <rects>
                <_>
                  2 0 1 12 -1.</_>
                <_>
                  2 6 1 6 2.</_></rects>
              <tilted>0</tilted></feature>
            <threshold>-0.0345916487276554</threshold>
            <left_val>0.8427789807319641</left_val>
            <right_node>1</right_node></_>
          <_>
            <!-- node 1 -->
            <feature>
              <rects>
                <_>
                  4 13 3 2 -1.</_>
                <_>
                  4 13 3 1 2.</_></rects>
              <tilted>1</tilted></feature>
            <threshold>0.0176605097949505</threshold>
            <left_val>-0.9676492810249329</left_val>
            <right_val>0.5412586927413940</right_val></_></_></trees>
      <stage_threshold>-0.2582719027996063</stage_threshold>
      <parent>5</parent>
      <next>-1</next></_>
    <_>
      <!-- stage 7 -->
      <trees>
        <_>
          <!-- tree 0 -->
          <_>
            <!-- root node -->
            <feature>
              <rects>
                <_>
                  1 6 18 4 -1.</_>
                <_>
                  1 7 18 2 2.</_></rects>
              <tilted>0</tilted></feature>
            <threshold>-7.1137370541691780e-003</threshold>
            <left_val>-1.</left_val>
            <right_node>1</right_node></_>
          <_>
            <!-- node 1 -->
            <feature>
              <rects>
                <_>
                  4 6 15 3 -1.</_>
                <_>
                  4 7 15 1 3.</_></rects>
              <tilted>0</tilted></feature>
            <threshold>1.9222539849579334e-003</threshold>
            <left_val>0.6012821197509766</left_val>
            <right_val>-0.9999641776084900</right_val></_></_></trees>
      <stage_threshold>0.6012821197509766</stage_threshold>
      <parent>6</parent>
      <next>-1</next></_>
    <_>
      <!-- stage 8 -->
      <trees>
        <_>
          <!-- tree 0 -->
          <_>
            <!-- root node -->
            <feature>
              <rects>
                <_>
                  5 7 14 3 -1.</_>
                <_>
                  5 8 14 1 3.</_></rects>
              <tilted>0</tilted></feature>
            <threshold>1.5434420201927423e-003</threshold>
            <left_node>1</left_node>
            <right_val>-0.9999837279319763</right_val></_>
          <_>
            <!-- node 1 -->
            <feature>
              <rects>
                <_>
                  5 10 11 3 -1.</_>
                <_>
                  5 11 11 1 3.</_></rects>
              <tilted>0</tilted></feature>
            <threshold>7.6041719876229763e-004</threshold>
            <left_val>0.6501657962799072</left_val>
            <right_val>-0.9999747276306152</right_val></_></_></trees>
      <stage_threshold>0.6501657962799072</stage_threshold>
      <parent>7</parent>
      <next>-1</next></_>
    <_>
      <!-- stage 9 -->
      <trees>
        <_>
          <!-- tree 0 -->
          <_>
            <!-- root node -->
            <feature>
              <rects>
                <_>
                  12 13 2 2 -1.</_>
                <_>
                  13 13 1 2 2.</_></rects>
              <tilted>0</tilted></feature>
            <threshold>-3.3437091042287648e-004</threshold>
            <left_node>1</left_node>
            <right_val>-0.7872189283370972</right_val></_>
          <_>
            <!-- node 1 -->
            <feature>
              <rects>
                <_>
                  6 10 13 3 -1.</_>
                <_>
                  6 11 13 1 3.</_></rects>
              <tilted>0</tilted></feature>
            <threshold>-2.7010159101337194e-003</threshold>
            <left_val>-1.</left_val>
            <right_val>0.7358509898185730</right_val></_></_>
        <_>
          <!-- tree 1 -->
          <_>
            <!-- root node -->
            <feature>
              <rects>
                <_>
                  0 6 2 4 -1.</_>
                <_>
                  0 6 1 2 2.</_>
                <_>
                  1 8 1 2 2.</_></rects>
              <tilted>0</tilted></feature>
            <threshold>3.5229709465056658e-003</threshold>
            <left_node>1</left_node>
            <right_val>0.6665006875991821</right_val></_>
          <_>
            <!-- node 1 -->
            <feature>
              <rects>
                <_>
                  0 2 14 5 -1.</_>
                <_>
                  7 2 7 5 2.</_></rects>
              <tilted>0</tilted></feature>
            <threshold>0.1508201062679291</threshold>
            <left_val>-0.9044545292854309</left_val>
            <right_val>0.9599031805992127</right_val></_></_></trees>
      <stage_threshold>-0.1686034053564072</stage_threshold>
      <parent>8</parent>
      <next>-1</next></_></stages></nopark3_1000_cascade>
</opencv_storage>
